tree
version=v3
num_class=2
num_tree_per_iteration=2
label_index=0
max_feature_idx=7
objective=multiclass num_class:2
feature_names=VGG-Face_cosine VGG-Face_euclidean_l2 Facenet_cosine Facenet_euclidean_l2 OpenFace_cosine OpenFace_euclidean_l2 DeepFace_cosine DeepFace_euclidean_l2
feature_infos=[0.081100000000000005:0.89880000000000004] [0.40279999999999999:1.3407] [0.092899999999999996:1.1877] [0.43099999999999999:1.5411999999999999] [0.036499999999999998:0.95120000000000005] [0.27000000000000002:1.3793] [0.1004:0.63900000000000001] [0.44819999999999999:1.1305000000000001]
tree_sizes=859 854 963 965 964 966 858 862 855 859 1068 1068 960 962 1069 1069 965 967 961 961 967 967 1073 1073 1066 1066 965 965 1066 1066 961 961 963 963 968 968 1065 1063 861 859 856 854 1067 1067 1064 1062 859 857 966 968 1062 1062 856 852 862 862 865 861 862 860 865 865 860 858 1063 1059 856 858 969 965 965 961

Tree=0
num_leaves=7
num_cat=0
split_feature=2 7 0 0 2 0
split_gain=55.6229 11.6307 2.08751 0.293364 0.274314 3.55271e-15
threshold=0.42800000000000005 0.89585000000000015 0.65195000000000014 0.54185000000000005 0.26185000000000008 0.23770000000000002
decision_type=2 2 2 2 2 2
left_child=4 3 -3 -2 5 -1
right_child=1 2 -4 -5 -6 -7
leaf_value=-0.78402573705388789 -0.60400699182536399 -0.71401844724279528 -0.6532428879562423 -0.58400490902219471 -0.76497613438420276 -0.78402573705388789
leaf_weight=16.998229801654819 9.9989587068557721 9.9989587068557757 12.998646318912504 27.497136443853378 10.498906642198561 9.9989587068557721
leaf_count=34 20 20 26 55 21 20
internal_value=-0.682995 -0.623678 -0.679667 -0.589339 -0.778692 -0.784026
internal_weight=0 60.4937 22.9976 37.4961 37.4961 26.9972
internal_count=196 121 46 75 75 54
is_linear=0
shrinkage=1


Tree=1
num_leaves=7
num_cat=0
split_feature=2 7 0 0 2 0
split_gain=55.6229 11.6307 2.08751 0.293364 0.274314 3.55271e-15
threshold=0.42800000000000005 0.89585000000000015 0.65195000000000014 0.54185000000000005 0.26185000000000008 0.23770000000000002
decision_type=2 2 2 2 2 2
left_child=4 3 -3 -2 5 -1
right_child=1 2 -4 -5 -6 -7
leaf_value=-0.6023727527691739 -0.7823914979976978 -0.67238004258026651 -0.7331556018668195 -0.80239358080086709 -0.62142235543885893 -0.6023727527691739
leaf_weight=16.998229801654819 9.9989587068557721 9.9989587068557757 12.998646318912504 27.497136443853378 10.498906642198561 9.9989587068557721
leaf_count=34 20 20 26 55 21 20
internal_value=-0.703404 -0.76272 -0.706731 -0.79706 -0.607707 -0.602373
internal_weight=0 60.4937 22.9976 37.4961 37.4961 26.9972
internal_count=196 121 46 75 75 54
is_linear=0
shrinkage=1


Tree=2
num_leaves=8
num_cat=0
split_feature=2 7 0 2 2 0 0
split_gain=45.4073 9.59555 1.69262 0.264897 0.230841 9.84915e-05 3.55271e-15
threshold=0.42800000000000005 0.89585000000000015 0.65195000000000014 0.76945000000000008 0.26185000000000008 0.67730000000000012 0.20530000000000001
decision_type=2 2 2 2 2 2 2
left_child=4 3 -3 -2 6 -5 -1
right_child=1 2 -4 5 -6 -7 -8
leaf_value=-0.091694533470844872 0.071242711929357355 -0.027930482304474914 0.0268184908108626 0.090582395490957632 -0.07416778980027415 0.090190650033168965 -0.091694533470844899
leaf_weight=10.413855046033861 9.9110776185989362 9.9956667423248309 12.979267060756682 10.385582864284517 10.446090012788771 16.798902630805969 16.364629358053207
leaf_count=21 20 20 26 21 21 34 33
internal_value=0 0.0537843 0.00299894 0.0852379 -0.0867761 0.0903403 -0.0916945
internal_weight=0 60.0705 22.9749 37.0956 37.2246 27.1845 26.7785
internal_count=196 121 46 75 75 55 54
is_linear=0
shrinkage=0.1


Tree=3
num_leaves=8
num_cat=0
split_feature=2 7 0 2 2 0 0
split_gain=45.4073 9.59555 1.69262 0.264897 0.230841 9.84915e-05 3.55271e-15
threshold=0.42800000000000005 0.89585000000000015 0.65195000000000014 0.76945000000000008 0.26185000000000008 0.67730000000000012 0.20530000000000001
decision_type=2 2 2 2 2 2 2
left_child=4 3 -3 -2 6 -5 -1
right_child=1 2 -4 5 -6 -7 -8
leaf_value=0.091694533470844872 -0.071242711929357355 0.027930482304474914 -0.0268184908108626 -0.090582395490957632 0.07416778980027415 -0.090190650033168965 0.091694533470844899
leaf_weight=10.413855046033861 9.9110776185989362 9.9956667423248309 12.979267060756682 10.385582864284517 10.446090012788771 16.798902630805969 16.364629358053207
leaf_count=21 20 20 26 21 21 34 33
internal_value=0 -0.0537843 -0.00299894 -0.0852379 0.0867761 -0.0903403 0.0916945
internal_weight=0 60.0705 22.9749 37.0956 37.2246 27.1845 26.7785
internal_count=196 121 46 75 75 55 54
is_linear=0
shrinkage=0.1


Tree=4
num_leaves=8
num_cat=0
split_feature=2 7 0 2 2 0 0
split_gain=37.6129 8.11351 1.3747 0.238341 0.208741 5.6753e-05 3.55271e-15
threshold=0.42800000000000005 0.89585000000000015 0.65195000000000014 0.76945000000000008 0.26185000000000008 0.67730000000000012 0.23770000000000002
decision_type=2 2 2 2 2 2 2
left_child=4 3 -3 -2 6 -5 -1
right_child=1 2 -4 5 -6 -7 -8
leaf_value=-0.084708373453311669 0.065368240553192375 -0.025188657657664648 0.024209279063790001 0.083858689591027491 -0.067886335652074914 0.083557251619667858 -0.084708373453311683
leaf_weight=16.446007966995243 9.7305601835250837 9.9762719869613665 12.942206263542174 10.109933346509935 10.279489696025847 16.341691911220551 9.6741223335266096
leaf_count=34 20 20 26 21 21 34 20
internal_value=0 0.0492613 0.00270666 0.0787499 -0.0799577 0.0836725 -0.0847084
internal_weight=0 59.1007 22.9185 36.1822 36.3996 26.4516 26.1201
internal_count=196 121 46 75 75 55 54
is_linear=0
shrinkage=0.1


Tree=5
num_leaves=8
num_cat=0
split_feature=2 7 0 2 2 0 0
split_gain=37.6129 8.11351 1.3747 0.238341 0.208741 5.6753e-05 3.55271e-15
threshold=0.42800000000000005 0.89585000000000015 0.65195000000000014 0.76945000000000008 0.26185000000000008 0.67730000000000012 0.23770000000000002
decision_type=2 2 2 2 2 2 2
left_child=4 3 -3 -2 6 -5 -1
right_child=1 2 -4 5 -6 -7 -8
leaf_value=0.084708373453311669 -0.065368240553192375 0.025188657657664648 -0.024209279063790001 -0.083858689591027491 0.067886335652074914 -0.083557251619667858 0.084708373453311683
leaf_weight=16.446007966995243 9.7305601835250837 9.9762719869613665 12.942206263542174 10.109933346509935 10.279489696025847 16.341691911220551 9.6741223335266096
leaf_count=34 20 20 26 21 21 34 20
internal_value=0 -0.0492613 -0.00270666 -0.0787499 0.0799577 -0.0836725 0.0847084
internal_weight=0 59.1007 22.9185 36.1822 36.3996 26.4516 26.1201
internal_count=196 121 46 75 75 55 54
is_linear=0
shrinkage=0.1


Tree=6
num_leaves=7
num_cat=0
split_feature=2 7 0 2 6 2
split_gain=31.4955 7.07934 1.87672 0.198375 0.0488977 0.00213904
threshold=0.42800000000000005 0.83265000000000011 0.70145000000000013 0.26185000000000008 0.25690000000000007 0.82565000000000011
decision_type=2 2 2 2 2 2
left_child=3 4 -3 -1 5 -2
right_child=1 2 -4 -5 -6 -7
leaf_value=-0.079299315553300637 0.080549499989373219 -0.016275177928933165 0.039673038032831676 -0.062669687670712126 0.071608423413019082 0.078433545738501378
leaf_weight=25.160100102424622 9.4089594483375567 15.321543186903002 9.8499364256858808 10.034165114164351 13.469182550907133 9.7058638930320722
leaf_count=54 20 31 20 21 29 21
internal_value=0 0.0454515 0.00561811 -0.0745581 0.0762233 0.0794751
internal_weight=0 57.7555 25.1715 35.1943 32.584 19.1148
internal_count=196 121 51 75 70 41
is_linear=0
shrinkage=0.1


Tree=7
num_leaves=7
num_cat=0
split_feature=2 7 0 2 6 2
split_gain=31.4955 7.07934 1.87672 0.198375 0.0488977 0.00213904
threshold=0.42800000000000005 0.83265000000000011 0.70145000000000013 0.26185000000000008 0.25690000000000007 0.82565000000000011
decision_type=2 2 2 2 2 2
left_child=3 4 -3 -1 5 -2
right_child=1 2 -4 -5 -6 -7
leaf_value=0.079299315553300637 -0.080549499989373219 0.016275177928933165 -0.039673038032831676 0.062669687670712126 -0.071608423413019082 -0.078433545738501378
leaf_weight=25.160100102424622 9.4089594483375567 15.321543186903002 9.8499364256858808 10.034165114164351 13.469182550907133 9.7058638930320722
leaf_count=54 20 31 20 21 29 21
internal_value=0 -0.0454515 -0.00561811 0.0745581 -0.0762233 -0.0794751
internal_weight=0 57.7555 25.1715 35.1943 32.584 19.1148
internal_count=196 121 51 75 70 41
is_linear=0
shrinkage=0.1


Tree=8
num_leaves=7
num_cat=0
split_feature=2 7 0 2 0 2
split_gain=26.5823 6.20809 1.53392 0.195089 0.0486051 6.68235e-05
threshold=0.42800000000000005 0.83265000000000011 0.70145000000000013 0.26185000000000008 0.5666500000000001 0.91115000000000013
decision_type=2 2 2 2 2 2
left_child=3 4 -3 -1 -2 -6
right_child=1 2 -4 -5 5 -7
leaf_value=-0.075002244606523993 0.065978942288507272 -0.01465246538131945 0.036087828932098547 -0.058219685409582313 0.07476990395944981 0.074412553544805929
leaf_weight=24.00071793794632 9.5010873377323168 15.316713452339174 9.7508276700973493 9.7364576160907728 8.8586337268352526 12.785246819257734
leaf_count=54 21 31 20 21 20 29
internal_value=0 0.0421271 0.00508461 -0.0701588 0.0719414 0.0745588
internal_weight=0 56.2125 25.0675 33.7372 31.145 21.6439
internal_count=196 121 51 75 70 49
is_linear=0
shrinkage=0.1


Tree=9
num_leaves=7
num_cat=0
split_feature=2 7 0 2 0 2
split_gain=26.5823 6.20809 1.53392 0.195089 0.0486051 6.68235e-05
threshold=0.42800000000000005 0.83265000000000011 0.70145000000000013 0.26185000000000008 0.5666500000000001 0.91115000000000013
decision_type=2 2 2 2 2 2
left_child=3 4 -3 -1 -2 -6
right_child=1 2 -4 -5 5 -7
leaf_value=0.075002244606523993 -0.065978942288507272 0.01465246538131945 -0.036087828932098547 0.058219685409582313 -0.07476990395944981 -0.074412553544805929
leaf_weight=24.00071793794632 9.5010873377323168 15.316713452339174 9.7508276700973493 9.7364576160907728 8.8586337268352526 12.785246819257734
leaf_count=54 21 31 20 21 20 29
internal_value=0 -0.0421271 -0.00508461 0.0701588 -0.0719414 -0.0745588
internal_weight=0 56.2125 25.0675 33.7372 31.145 21.6439
internal_count=196 121 51 75 70 49
is_linear=0
shrinkage=0.1


Tree=10
num_leaves=9
num_cat=0
split_feature=0 7 2 4 0 0 2 7
split_gain=22.6696 3.61993 1.81069 1.07534 0.0641351 0.0017042 0.00143314 8.65787e-05
threshold=0.48095000000000004 0.89585000000000015 0.33365000000000006 0.52920000000000011 0.21350000000000002 0.61725000000000019 0.22050000000000003 0.73085000000000011
decision_type=2 2 2 2 2 2 2 2
left_child=2 5 4 -3 -1 -2 -6 -7
right_child=1 3 -4 -5 6 7 -8 -9
leaf_value=-0.062602288035632558 0.072989317925689842 -0.0081078075063931391 -0.022709881524345665 0.03866274539538242 -0.071519533556940698 0.071085053310243132 -0.073331062256772439 0.071529241441915012
leaf_weight=10.599377363920214 9.0004786849021929 9.8308892846107501 12.281698763370512 9.8326318264007551 8.4142130613327044 9.1781007051467913 9.0797568261623365 8.4080481827259046
leaf_count=25 21 20 27 20 20 22 21 20
internal_value=0 0.0478103 -0.0547385 0.0152795 -0.0687406 0.0718702 -0.0724598 0.0712974
internal_weight=0 46.2501 40.375 19.6635 28.0933 26.5866 17.494 17.5861
internal_count=196 103 93 40 66 63 41 42
is_linear=0
shrinkage=0.1


Tree=11
num_leaves=9
num_cat=0
split_feature=0 7 2 4 0 0 2 7
split_gain=22.6696 3.61993 1.81069 1.07534 0.0641351 0.0017042 0.00143314 8.65787e-05
threshold=0.48095000000000004 0.89585000000000015 0.33365000000000006 0.52920000000000011 0.21350000000000002 0.61725000000000019 0.22050000000000003 0.73085000000000011
decision_type=2 2 2 2 2 2 2 2
left_child=2 5 4 -3 -1 -2 -6 -7
right_child=1 3 -4 -5 6 7 -8 -9
leaf_value=0.062602288035632558 -0.072989317925689842 0.0081078075063931391 0.022709881524345665 -0.03866274539538242 0.071519533556940698 -0.071085053310243132 0.073331062256772439 -0.071529241441915012
leaf_weight=10.599377363920214 9.0004786849021929 9.8308892846107501 12.281698763370512 9.8326318264007551 8.4142130613327044 9.1781007051467913 9.0797568261623365 8.4080481827259046
leaf_count=25 21 20 27 20 20 22 21 20
internal_value=0 -0.0478103 0.0547385 -0.0152795 0.0687406 -0.0718702 0.0724598 -0.0712974
internal_weight=0 46.2501 40.375 19.6635 28.0933 26.5866 17.494 17.5861
internal_count=196 103 93 40 66 63 41 42
is_linear=0
shrinkage=0.1


Tree=12
num_leaves=8
num_cat=0
split_feature=2 7 0 2 6 2 0
split_gain=19.426 5.21619 1.32989 0.197322 0.0522208 0.00378371 6.75027e-05
threshold=0.42800000000000005 0.83265000000000011 0.64540000000000008 0.26185000000000008 0.25690000000000007 0.82565000000000011 0.21350000000000002
decision_type=2 2 2 2 2 2 2
left_child=3 4 -3 6 5 -2 -1
right_child=1 2 -4 -5 -6 -7 -8
leaf_value=-0.068987042021547373 0.071211918719930323 -0.02314694130187446 0.023530082189308424 -0.05118712002650997 0.060960190499712796 0.06818435000717131 -0.068626146135064792
leaf_weight=8.7769756317138725 8.2988118231296593 10.808410704135897 14.023584663867949 9.0834796428680402 11.64005061984062 8.2132720649242383 12.655900597572325
leaf_count=22 20 22 29 21 29 21 32
internal_value=0 0.0366216 0.00321337 -0.0635391 0.0660899 0.069706 -0.0687739
internal_weight=0 52.9841 24.832 30.5164 28.1521 16.5121 21.4329
internal_count=196 121 51 75 70 41 54
is_linear=0
shrinkage=0.1


Tree=13
num_leaves=8
num_cat=0
split_feature=2 7 0 2 6 2 0
split_gain=19.426 5.21619 1.32989 0.197322 0.0522208 0.00378371 6.75027e-05
threshold=0.42800000000000005 0.83265000000000011 0.64540000000000008 0.26185000000000008 0.25690000000000007 0.82565000000000011 0.21350000000000002
decision_type=2 2 2 2 2 2 2
left_child=3 4 -3 6 5 -2 -1
right_child=1 2 -4 -5 -6 -7 -8
leaf_value=0.068987042021547373 -0.071211918719930323 0.02314694130187446 -0.023530082189308424 0.05118712002650997 -0.060960190499712796 -0.06818435000717131 0.068626146135064792
leaf_weight=8.7769756317138725 8.2988118231296593 10.808410704135897 14.023584663867949 9.0834796428680402 11.64005061984062 8.2132720649242383 12.655900597572325
leaf_count=22 20 22 29 21 29 21 32
internal_value=0 -0.0366216 -0.00321337 0.0635391 -0.0660899 -0.069706 0.0687739
internal_weight=0 52.9841 24.832 30.5164 28.1521 16.5121 21.4329
internal_count=196 121 51 75 70 41 54
is_linear=0
shrinkage=0.1


Tree=14
num_leaves=9
num_cat=0
split_feature=0 7 2 4 0 6 2 2
split_gain=16.8683 3.09779 1.39487 0.950719 0.0666602 0.00227322 0.00104304 0.000119686
threshold=0.48095000000000004 0.89585000000000015 0.33365000000000006 0.52920000000000011 0.21350000000000002 0.28000000000000008 0.22050000000000003 0.88570000000000004
decision_type=2 2 2 2 2 2 2 2
left_child=2 5 4 -3 -1 7 -6 -2
right_child=1 3 -4 -5 6 -7 -8 -9
leaf_value=-0.056464111306000132 0.066484011564661938 -0.0089830241356653358 -0.021467671773787562 0.035141690563017296 -0.066259374702759208 0.068285629689900526 -0.06790100301144987 0.065933893280738967
leaf_weight=9.4530548155307788 7.4504839777946499 9.7892194688320178 11.889715015888212 9.7429607510566694 7.4069464206695548 7.7011763751506797 8.1059905886650068 8.4293319284915906
leaf_count=25 20 20 27 20 20 20 21 23
internal_value=0 0.0424799 -0.0496582 0.0130271 -0.0630835 0.0668757 -0.0671172 0.066192
internal_weight=0 43.1132 36.8557 19.5322 24.966 23.581 15.5129 15.8798
internal_count=196 103 93 40 66 63 41 43
is_linear=0
shrinkage=0.1


Tree=15
num_leaves=9
num_cat=0
split_feature=0 7 2 4 0 6 2 2
split_gain=16.8683 3.09779 1.39487 0.950719 0.0666602 0.00227322 0.00104304 0.000119686
threshold=0.48095000000000004 0.89585000000000015 0.33365000000000006 0.52920000000000011 0.21350000000000002 0.28000000000000008 0.22050000000000003 0.88570000000000004
decision_type=2 2 2 2 2 2 2 2
left_child=2 5 4 -3 -1 7 -6 -2
right_child=1 3 -4 -5 6 -7 -8 -9
leaf_value=0.056464111306000132 -0.066484011564661938 0.0089830241356653358 0.021467671773787562 -0.035141690563017296 0.066259374702759208 -0.068285629689900526 0.06790100301144987 -0.065933893280738967
leaf_weight=9.4530548155307788 7.4504839777946499 9.7892194688320178 11.889715015888212 9.7429607510566694 7.4069464206695548 7.7011763751506797 8.1059905886650068 8.4293319284915906
leaf_count=25 20 20 27 20 20 20 21 23
internal_value=0 -0.0424799 0.0496582 -0.0130271 0.0630835 -0.0668757 0.0671172 -0.066192
internal_weight=0 43.1132 36.8557 19.5322 24.966 23.581 15.5129 15.8798
internal_count=196 103 93 40 66 63 41 43
is_linear=0
shrinkage=0.1


Tree=16
num_leaves=8
num_cat=0
split_feature=2 7 2 2 6 2 0
split_gain=14.4139 4.48142 1.14736 0.211157 0.0561709 0.00509287 0.000147355
threshold=0.42800000000000005 0.83265000000000011 0.92690000000000017 0.26185000000000008 0.25690000000000007 0.82565000000000011 0.21350000000000002
decision_type=2 2 2 2 2 2 2
left_child=3 4 -3 6 5 -2 -1
right_child=1 2 -4 -5 -6 -7 -8
leaf_value=-0.064773781860823096 0.067630773606567371 -0.015989499136299223 0.028099498240448648 -0.045352034281718828 0.05620327702031528 0.06390325509937432 -0.064204702053896098
leaf_weight=7.7466848492622438 7.5219652652740496 14.694288074970247 9.8653817474842054 8.3840613663196546 10.385398358106611 7.1491656899452209 11.026697397232054
leaf_count=22 20 30 21 21 29 21 32
internal_value=0 0.0320767 0.00172062 -0.0585468 0.0618308 0.0658144 -0.0644395
internal_weight=0 49.6162 24.5597 27.1574 25.0565 14.6711 18.7734
internal_count=196 121 51 75 70 41 54
is_linear=0
shrinkage=0.1


Tree=17
num_leaves=8
num_cat=0
split_feature=2 7 2 2 6 2 0
split_gain=14.4139 4.48142 1.14736 0.211157 0.0561709 0.00509287 0.000147355
threshold=0.42800000000000005 0.83265000000000011 0.92690000000000017 0.26185000000000008 0.25690000000000007 0.82565000000000011 0.21350000000000002
decision_type=2 2 2 2 2 2 2
left_child=3 4 -3 6 5 -2 -1
right_child=1 2 -4 -5 -6 -7 -8
leaf_value=0.064773781860823096 -0.067630773606567371 0.015989499136299223 -0.028099498240448648 0.045352034281718828 -0.05620327702031528 -0.06390325509937432 0.064204702053896098
leaf_weight=7.7466848492622438 7.5219652652740496 14.694288074970247 9.8653817474842054 8.3840613663196546 10.385398358106611 7.1491656899452209 11.026697397232054
leaf_count=22 20 30 21 21 29 21 32
internal_value=0 -0.0320767 -0.00172062 0.0585468 -0.0618308 -0.0658144 0.0644395
internal_weight=0 49.6162 24.5597 27.1574 25.0565 14.6711 18.7734
internal_count=196 121 51 75 70 41 54
is_linear=0
shrinkage=0.1


Tree=18
num_leaves=8
num_cat=0
split_feature=0 7 2 2 6 0 2
split_gain=12.8535 2.28792 1.4 0.22066 0.00222461 9.97107e-05 1.42749e-05
threshold=0.49800000000000005 0.89585000000000015 0.42800000000000005 0.26185000000000008 0.28160000000000002 0.21350000000000002 0.91115000000000013
decision_type=2 2 2 2 2 2 2
left_child=2 4 3 5 6 -1 -2
right_child=1 -3 -4 -5 -6 -7 -8
leaf_value=-0.062978659011127966 0.062550538776224143 0.014623756882866549 -0.010606459284509855 -0.04266712418985058 0.064698235235003926 -0.062492947302706991 0.062343888422390081
leaf_weight=7.1988936066627565 6.4102491140365618 18.951903700828552 9.0610562860965711 8.0387283861637098 6.4925920665264121 10.236457467079161 6.9853033125400543
leaf_count=22 20 39 21 21 19 32 22
internal_value=0 0.0394866 -0.0443658 -0.0563739 0.0631791 -0.0626935 0.0624428
internal_weight=0 38.84 34.5351 25.4741 19.8881 17.4354 13.3956
internal_count=196 100 96 75 61 54 42
is_linear=0
shrinkage=0.1


Tree=19
num_leaves=8
num_cat=0
split_feature=0 7 2 2 6 0 2
split_gain=12.8535 2.28792 1.4 0.22066 0.00222461 9.97107e-05 1.42749e-05
threshold=0.49800000000000005 0.89585000000000015 0.42800000000000005 0.26185000000000008 0.28160000000000002 0.21350000000000002 0.91115000000000013
decision_type=2 2 2 2 2 2 2
left_child=2 4 3 5 6 -1 -2
right_child=1 -3 -4 -5 -6 -7 -8
leaf_value=0.062978659011127966 -0.062550538776224143 -0.014623756882866549 0.010606459284509855 0.04266712418985058 -0.064698235235003926 0.062492947302706991 -0.062343888422390081
leaf_weight=7.1988936066627565 6.4102491140365618 18.951903700828552 9.0610562860965711 8.0387283861637098 6.4925920665264121 10.236457467079161 6.9853033125400543
leaf_count=22 20 39 21 21 19 32 22
internal_value=0 -0.0394866 0.0443658 0.0563739 -0.0631791 0.0626935 -0.0624428
internal_weight=0 38.84 34.5351 25.4741 19.8881 17.4354 13.3956
internal_count=196 100 96 75 61 54 42
is_linear=0
shrinkage=0.1


Tree=20
num_leaves=8
num_cat=0
split_feature=0 7 2 2 6 0 2
split_gain=10.9502 2.188 1.32762 0.230874 0.00156545 6.82243e-05 9.82822e-06
threshold=0.49800000000000005 0.89585000000000015 0.42800000000000005 0.26185000000000008 0.28160000000000002 0.21350000000000002 0.91115000000000013
decision_type=2 2 2 2 2 2 2
left_child=2 4 3 5 6 -1 -2
right_child=1 -3 -4 -5 -6 -7 -8
leaf_value=-0.061442672042278018 0.061075244311055522 0.013198950225370366 -0.0095030146381770986 -0.040157565412901303 0.062946765128081963 -0.061025145838033749 0.060896996876641921
leaf_weight=6.6682194471359315 5.9330774545669573 18.900727391242981 9.0996965765953046 7.7046646177768698 6.0297087132930747 9.4735634326934797 6.4629561305046082
leaf_count=22 20 39 21 21 19 32 22
internal_value=0 0.0371039 -0.0419993 -0.0543997 0.0616252 -0.0611976 0.0609823
internal_weight=0 37.3265 32.9461 23.8464 18.4257 16.1418 12.396
internal_count=196 100 96 75 61 54 42
is_linear=0
shrinkage=0.1


Tree=21
num_leaves=8
num_cat=0
split_feature=0 7 2 2 6 0 2
split_gain=10.9502 2.188 1.32762 0.230874 0.00156545 6.82243e-05 9.82822e-06
threshold=0.49800000000000005 0.89585000000000015 0.42800000000000005 0.26185000000000008 0.28160000000000002 0.21350000000000002 0.91115000000000013
decision_type=2 2 2 2 2 2 2
left_child=2 4 3 5 6 -1 -2
right_child=1 -3 -4 -5 -6 -7 -8
leaf_value=0.061442672042278018 -0.061075244311055522 -0.013198950225370366 0.0095030146381770986 0.040157565412901303 -0.062946765128081963 0.061025145838033749 -0.060896996876641921
leaf_weight=6.6682194471359315 5.9330774545669573 18.900727391242981 9.0996965765953046 7.7046646177768698 6.0297087132930747 9.4735634326934797 6.4629561305046082
leaf_count=22 20 39 21 21 19 32 22
internal_value=0 -0.0371039 0.0419993 0.0543997 -0.0616252 0.0611976 -0.0609823
internal_weight=0 37.3265 32.9461 23.8464 18.4257 16.1418 12.396
internal_count=196 100 96 75 61 54 42
is_linear=0
shrinkage=0.1


Tree=22
num_leaves=9
num_cat=0
split_feature=0 7 2 4 2 0 6 0
split_gain=9.33488 2.43294 1.09487 0.783795 0.241489 0.000887932 9.68939e-05 4.71214e-05
threshold=0.48095000000000004 0.89585000000000015 0.42800000000000005 0.52920000000000011 0.26185000000000008 0.61725000000000019 0.26440000000000002 0.21350000000000002
decision_type=2 2 2 2 2 2 2 2
left_child=2 5 4 -3 7 -2 -7 -1
right_child=1 3 -4 -5 -6 6 -8 -9
leaf_value=-0.060119497408989378 0.061408089712408735 -0.010848911909563165 -0.0093477160719526841 0.029407283963390946 -0.037793512920680797 0.059611660153339054 0.060191711536875053 -0.059758403520297571
leaf_weight=6.1595777869224611 6.1436779797077206 9.739645332098009 7.9461236000061026 9.6075044572353345 7.3848985433578482 5.4083255231380445 6.1597102582454681 8.7443459033966047
leaf_count=22 21 20 18 20 21 20 22 32
internal_value=0 0.0336573 -0.0412185 0.00914171 -0.0525806 0.0604365 0.0599205 -0.0599076
internal_weight=0 37.0589 30.2349 19.3471 22.2888 17.7117 11.568 14.9039
internal_count=196 103 93 40 75 63 42 54
is_linear=0
shrinkage=0.1


Tree=23
num_leaves=9
num_cat=0
split_feature=0 7 2 4 2 0 6 0
split_gain=9.33488 2.43294 1.09487 0.783795 0.241489 0.000887932 9.68939e-05 4.71214e-05
threshold=0.48095000000000004 0.89585000000000015 0.42800000000000005 0.52920000000000011 0.26185000000000008 0.61725000000000019 0.26440000000000002 0.21350000000000002
decision_type=2 2 2 2 2 2 2 2
left_child=2 5 4 -3 7 -2 -7 -1
right_child=1 3 -4 -5 -6 6 -8 -9
leaf_value=0.060119497408989378 -0.061408089712408735 0.010848911909563165 0.0093477160719526841 -0.029407283963390946 0.037793512920680797 -0.059611660153339054 -0.060191711536875053 0.059758403520297571
leaf_weight=6.1595777869224611 6.1436779797077206 9.739645332098009 7.9461236000061026 9.6075044572353345 7.3848985433578482 5.4083255231380445 6.1597102582454681 8.7443459033966047
leaf_count=22 21 20 18 20 21 20 22 32
internal_value=0 -0.0336573 0.0412185 -0.00914171 0.0525806 -0.0604365 -0.0599205 0.0599076
internal_weight=0 37.0589 30.2349 19.3471 22.2888 17.7117 11.568 14.9039
internal_count=196 103 93 40 75 63 42 54
is_linear=0
shrinkage=0.1


Tree=24
num_leaves=9
num_cat=0
split_feature=0 7 6 2 6 6 4 6
split_gain=8.0455 1.97306 1.22222 2.8475 0.107822 0.000819843 0.00011629 5.1313e-06
threshold=0.49800000000000005 0.89585000000000015 0.29060000000000002 0.33365000000000006 0.20305000000000004 0.28160000000000002 0.15775000000000003 0.22655000000000003
decision_type=2 2 2 2 2 2 2 2
left_child=2 5 3 4 6 7 -1 -2
right_child=1 -3 -4 -5 -6 -7 -8 -9
leaf_value=-0.058837696374876673 0.058549883647396196 0.011088751334041441 -0.080034540790599393 0.018657506906682188 -0.041835119402958414 0.060155439205832689 -0.059506695093572294 0.058689642574355529
leaf_weight=5.1046288311481529 5.4827425926923734 18.798308819532394 5.6021043956279746 8.452650308609007 5.4711215496063224 5.1613652706146231 5.2920483946800232 5.043764129281044
leaf_count=20 22 39 14 22 20 19 20 20
internal_value=0 0.0329397 -0.0379245 -0.0282247 -0.0531984 0.0591231 -0.0591782 0.0586168
internal_weight=0 34.4862 29.9226 24.3204 15.8678 15.6879 10.3967 10.5265
internal_count=196 100 96 82 60 61 40 42
is_linear=0
shrinkage=0.1


Tree=25
num_leaves=9
num_cat=0
split_feature=0 7 6 2 6 6 4 6
split_gain=8.0455 1.97306 1.22222 2.8475 0.107822 0.000819843 0.00011629 5.1313e-06
threshold=0.49800000000000005 0.89585000000000015 0.29060000000000002 0.33365000000000006 0.20305000000000004 0.28160000000000002 0.15775000000000003 0.22655000000000003
decision_type=2 2 2 2 2 2 2 2
left_child=2 5 3 4 6 7 -1 -2
right_child=1 -3 -4 -5 -6 -7 -8 -9
leaf_value=0.058837696374876673 -0.058549883647396196 -0.011088751334041441 0.080034540790599393 -0.018657506906682188 0.041835119402958414 -0.060155439205832689 0.059506695093572294 -0.058689642574355529
leaf_weight=5.1046288311481529 5.4827425926923734 18.798308819532394 5.6021043956279746 8.452650308609007 5.4711215496063224 5.1613652706146231 5.2920483946800232 5.043764129281044
leaf_count=20 22 39 14 22 20 19 20 20
internal_value=0 -0.0329397 0.0379245 0.0282247 0.0531984 -0.0591231 0.0591782 -0.0586168
internal_weight=0 34.4862 29.9226 24.3204 15.8678 15.6879 10.3967 10.5265
internal_count=196 100 96 82 60 61 40 42
is_linear=0
shrinkage=0.1


Tree=26
num_leaves=8
num_cat=0
split_feature=2 7 0 4 6 2 2
split_gain=7.05446 3.42315 0.897679 0.257038 0.0814438 0.0108643 0.00272183
threshold=0.42800000000000005 0.83265000000000011 0.64540000000000008 0.22440000000000002 0.25690000000000007 0.82565000000000011 0.20895000000000002
decision_type=2 2 2 2 2 2 2
left_child=3 4 -3 6 5 -2 -1
right_child=1 2 -4 -5 -6 -7 -8
leaf_value=-0.057908460734927669 0.063926103465439268 -0.02395257614284647 0.015212993525685316 -0.036109319387069003 0.047550718338723263 0.057542405185250514 -0.06101315702330902
leaf_weight=6.1298816502094287 6.0230688601732272 10.429308384656908 13.334215492010115 8.2005279213190061 7.5251485258340827 4.7831675112247467 5.2354356199502945
leaf_count=26 20 22 29 30 29 21 19
internal_value=0 0.0230702 -0.00197595 -0.0496027 0.0555382 0.0611005 -0.0593386
internal_weight=0 42.0949 23.7635 19.5658 18.3314 10.8062 11.3653
internal_count=196 121 51 75 70 41 45
is_linear=0
shrinkage=0.1


Tree=27
num_leaves=8
num_cat=0
split_feature=2 7 0 4 6 2 2
split_gain=7.05446 3.42315 0.897679 0.257038 0.0814438 0.0108643 0.00272183
threshold=0.42800000000000005 0.83265000000000011 0.64540000000000008 0.22440000000000002 0.25690000000000007 0.82565000000000011 0.20895000000000002
decision_type=2 2 2 2 2 2 2
left_child=3 4 -3 6 5 -2 -1
right_child=1 2 -4 -5 -6 -7 -8
leaf_value=0.057908460734927669 -0.063926103465439268 0.02395257614284647 -0.015212993525685316 0.036109319387069003 -0.047550718338723263 -0.057542405185250514 0.06101315702330902
leaf_weight=6.1298816502094287 6.0230688601732272 10.429308384656908 13.334215492010115 8.2005279213190061 7.5251485258340827 4.7831675112247467 5.2354356199502945
leaf_count=26 20 22 29 30 29 21 19
internal_value=0 -0.0230702 0.00197595 0.0496027 -0.0555382 -0.0611005 0.0593386
internal_weight=0 42.0949 23.7635 19.5658 18.3314 10.8062 11.3653
internal_count=196 121 51 75 70 41 45
is_linear=0
shrinkage=0.1


Tree=28
num_leaves=9
num_cat=0
split_feature=0 7 6 2 2 6 4 6
split_gain=6.20771 1.77293 1.01024 2.31181 0.409548 0.000994254 1.87436e-05 9.58421e-06
threshold=0.49800000000000005 0.89585000000000015 0.29060000000000002 0.39990000000000009 0.24555000000000002 0.28160000000000002 0.17115000000000002 0.22655000000000003
decision_type=2 2 2 2 2 2 2 2
left_child=2 5 3 4 6 7 -1 -2
right_child=1 -3 -4 -5 -6 -7 -8 -9
leaf_value=-0.056981471223750704 0.056742939539077691 0.0097869785241947796 -0.075010122919806368 0.027406268816618024 -0.022649562708058426 0.058664225050170118 -0.057250647029058202 0.0569507706055759
leaf_weight=6.233998462557798 4.6037709414958936 18.652876019477844 5.201905131340026 5.9092198908329001 5.1064490973949423 4.5240529477596274 4.421813115477562 4.2833335101604462
leaf_count=29 22 39 14 16 17 19 20 20
internal_value=0 0.0297257 -0.0354358 -0.0259365 -0.0459346 0.0574574 -0.0570932 0.0568431
internal_weight=0 32.064 26.8734 21.6715 15.7623 13.4112 10.6558 8.8871
internal_count=196 100 96 82 66 61 49 42
is_linear=0
shrinkage=0.1


Tree=29
num_leaves=9
num_cat=0
split_feature=0 7 6 2 2 6 4 6
split_gain=6.20771 1.77293 1.01024 2.31181 0.409548 0.000994254 1.87436e-05 9.58421e-06
threshold=0.49800000000000005 0.89585000000000015 0.29060000000000002 0.39990000000000009 0.24555000000000002 0.28160000000000002 0.17115000000000002 0.22655000000000003
decision_type=2 2 2 2 2 2 2 2
left_child=2 5 3 4 6 7 -1 -2
right_child=1 -3 -4 -5 -6 -7 -8 -9
leaf_value=0.056981471223750704 -0.056742939539077691 -0.0097869785241947796 0.075010122919806368 -0.027406268816618024 0.022649562708058426 -0.058664225050170118 0.057250647029058202 -0.0569507706055759
leaf_weight=6.233998462557798 4.6037709414958936 18.652876019477844 5.201905131340026 5.9092198908329001 5.1064490973949423 4.5240529477596274 4.421813115477562 4.2833335101604462
leaf_count=29 22 39 14 16 17 19 20 20
internal_value=0 -0.0297257 0.0354358 0.0259365 0.0459346 -0.0574574 0.0570932 -0.0568431
internal_weight=0 32.064 26.8734 21.6715 15.7623 13.4112 10.6558 8.8871
internal_count=196 100 96 82 66 61 49 42
is_linear=0
shrinkage=0.1


Tree=30
num_leaves=8
num_cat=0
split_feature=2 7 4 2 2 6 6
split_gain=5.45652 3.27769 0.761123 0.341551 0.0132836 2.28374e-05 7.49621e-06
threshold=0.48820000000000002 0.83265000000000011 0.48565000000000008 0.26185000000000008 0.80345000000000011 0.26040000000000002 0.18400000000000002
decision_type=2 2 2 2 2 2 2
left_child=3 4 -3 6 -2 -6 -1
right_child=1 2 -4 -5 5 -7 -8
leaf_value=-0.056260070871505488 0.062285064379081378 -0.024335637331585266 0.012692443434258677 -0.028548711480254993 0.05597387207304623 0.056293542353273641 -0.05643090255161412
leaf_weight=6.5232899636030215 5.7673223614692679 9.0890684723854083 14.26196828484535 7.5192281305789939 4.575177997350691 4.3688431978225708 4.237059473991394
leaf_count=33 21 19 32 24 24 22 21
internal_value=0 0.0215719 -0.00172023 -0.0449007 0.058543 0.05613 -0.0563273
internal_weight=0 38.0624 23.351 18.2796 14.7113 8.94402 10.7603
internal_count=196 118 51 78 67 46 54
is_linear=0
shrinkage=0.1


Tree=31
num_leaves=8
num_cat=0
split_feature=2 7 4 2 2 6 6
split_gain=5.45652 3.27769 0.761123 0.341551 0.0132836 2.28374e-05 7.49621e-06
threshold=0.48820000000000002 0.83265000000000011 0.48565000000000008 0.26185000000000008 0.80345000000000011 0.26040000000000002 0.18400000000000002
decision_type=2 2 2 2 2 2 2
left_child=3 4 -3 6 -2 -6 -1
right_child=1 2 -4 -5 5 -7 -8
leaf_value=0.056260070871505488 -0.062285064379081378 0.024335637331585266 -0.012692443434258677 0.028548711480254993 -0.05597387207304623 -0.056293542353273641 0.05643090255161412
leaf_weight=6.5232899636030215 5.7673223614692679 9.0890684723854083 14.26196828484535 7.5192281305789939 4.575177997350691 4.3688431978225708 4.237059473991394
leaf_count=33 21 19 32 24 24 22 21
internal_value=0 -0.0215719 0.00172023 0.0449007 -0.058543 -0.05613 0.0563273
internal_weight=0 38.0624 23.351 18.2796 14.7113 8.94402 10.7603
internal_count=196 118 51 78 67 46 54
is_linear=0
shrinkage=0.1


Tree=32
num_leaves=8
num_cat=0
split_feature=0 2 6 6 2 6 4
split_gain=4.85374 1.64665 2.11371 0.910272 1.84921 1.55781e-05 7.35955e-06
threshold=0.49800000000000005 1.0203500000000003 0.36395000000000005 0.29060000000000002 0.26185000000000008 0.26040000000000002 0.17115000000000002
decision_type=2 2 2 2 2 2 2
left_child=3 2 5 4 6 -2 -1
right_child=1 -3 -4 -5 -6 -7 -8
leaf_value=-0.055595438813523704 0.055374723488212076 0.069802320265261134 -0.0080738954659904261 -0.072219257495080166 0.0063057632889022665 0.055654484858809167 -0.055776958429665152
leaf_weight=5.60902644693852 4.3790099471807533 6.8922681808471671 15.002196460962294 4.825298771262168 9.9596235454082471 3.6489399522542953 3.7116073966026306
leaf_count=31 25 24 31 14 31 20 20
internal_value=0 0.0269208 0.0140876 -0.0333755 -0.023654 0.0555019 -0.0556677
internal_weight=0 29.9224 23.0301 24.1056 19.2803 8.02795 9.32063
internal_count=196 100 76 96 82 45 51
is_linear=0
shrinkage=0.1


Tree=33
num_leaves=8
num_cat=0
split_feature=0 2 6 6 2 6 4
split_gain=4.85374 1.64665 2.11371 0.910272 1.84921 1.55781e-05 7.35955e-06
threshold=0.49800000000000005 1.0203500000000003 0.36395000000000005 0.29060000000000002 0.26185000000000008 0.26040000000000002 0.17115000000000002
decision_type=2 2 2 2 2 2 2
left_child=3 2 5 4 6 -2 -1
right_child=1 -3 -4 -5 -6 -7 -8
leaf_value=0.055595438813523704 -0.055374723488212076 -0.069802320265261134 0.0080738954659904261 0.072219257495080166 -0.0063057632889022665 -0.055654484858809167 0.055776958429665152
leaf_weight=5.60902644693852 4.3790099471807533 6.8922681808471671 15.002196460962294 4.825298771262168 9.9596235454082471 3.6489399522542953 3.7116073966026306
leaf_count=31 25 24 31 14 31 20 20
internal_value=0 -0.0269208 -0.0140876 0.0333755 0.023654 -0.0555019 0.0556677
internal_weight=0 29.9224 23.0301 24.1056 19.2803 8.02795 9.32063
internal_count=196 100 76 96 82 45 51
is_linear=0
shrinkage=0.1


Tree=34
num_leaves=8
num_cat=0
split_feature=2 7 0 2 2 6 6
split_gain=4.23972 2.79168 0.95426 0.329541 0.010551 1.22958e-05 2.80327e-06
threshold=0.48820000000000002 0.83265000000000011 0.63170000000000015 0.26185000000000008 0.80345000000000011 0.26040000000000002 0.18400000000000002
decision_type=2 2 2 2 2 2 2
left_child=3 4 -3 6 -2 -6 -1
right_child=1 2 -4 -5 5 -7 -8
leaf_value=-0.055004943233418757 0.060762062652711273 -0.028012339716029046 0.014240362085195149 -0.026438183689314318 0.054742053071281854 0.054999363466843157 -0.055119275734714659
leaf_weight=5.4560001343488711 5.1357463449239713 8.4716669023036975 14.483141422271727 7.2901561558246604 3.7965933233499527 3.6354364305734634 3.5332574993371964
leaf_count=33 21 19 32 24 24 22 21
internal_value=0 0.0193897 -0.00135336 -0.0422372 0.0572765 0.0548679 -0.0550499
internal_weight=0 35.5226 22.9548 16.2794 12.5678 7.43203 8.98926
internal_count=196 118 51 78 67 46 54
is_linear=0
shrinkage=0.1


Tree=35
num_leaves=8
num_cat=0
split_feature=2 7 0 2 2 6 6
split_gain=4.23972 2.79168 0.95426 0.329541 0.010551 1.22958e-05 2.80327e-06
threshold=0.48820000000000002 0.83265000000000011 0.63170000000000015 0.26185000000000008 0.80345000000000011 0.26040000000000002 0.18400000000000002
decision_type=2 2 2 2 2 2 2
left_child=3 4 -3 6 -2 -6 -1
right_child=1 2 -4 -5 5 -7 -8
leaf_value=0.055004943233418757 -0.060762062652711273 0.028012339716029046 -0.014240362085195149 0.026438183689314318 -0.054742053071281854 -0.054999363466843157 0.055119275734714659
leaf_weight=5.4560001343488711 5.1357463449239713 8.4716669023036975 14.483141422271727 7.2901561558246604 3.7965933233499527 3.6354364305734634 3.5332574993371964
leaf_count=33 21 19 32 24 24 22 21
internal_value=0 -0.0193897 0.00135336 0.0422372 -0.0572765 -0.0548679 0.0550499
internal_weight=0 35.5226 22.9548 16.2794 12.5678 7.43203 8.98926
internal_count=196 118 51 78 67 46 54
is_linear=0
shrinkage=0.1


Tree=36
num_leaves=9
num_cat=0
split_feature=0 2 6 6 2 4 2 6
split_gain=3.69335 1.5105 1.76725 0.783951 2.23975 0.416177 0.00406275 8.62522e-06
threshold=0.49800000000000005 1.0203500000000003 0.36395000000000005 0.29060000000000002 0.42800000000000005 0.22440000000000002 0.22435000000000002 0.26040000000000002
decision_type=2 2 2 2 2 2 2 2
left_child=3 2 7 4 5 6 -1 -2
right_child=1 -3 -4 -5 -6 -7 -8 -9
leaf_value=-0.054491513838715415 0.054295388618885637 0.067513286418094662 -0.0074587495392088258 -0.068596104702389776 0.041199725841983198 -0.01997210154250198 -0.059092283363173029 0.054523534174067273
leaf_weight=4.5364104062318855 3.6403080970048967 6.2330590635538092 14.956178992986677 4.3894380480051032 4.311367154121398 5.1988485902547836 3.3270596861839294 3.0416838377714157
leaf_count=30 25 24 31 14 13 24 15 20
internal_value=0 0.024138 0.0116434 -0.0308367 -0.0212968 -0.0419245 -0.0564381 0.0543992
internal_weight=0 27.8712 21.6382 21.7631 17.3737 13.0623 7.86347 6.68199
internal_count=196 100 76 96 82 69 45 45
is_linear=0
shrinkage=0.1


Tree=37
num_leaves=9
num_cat=0
split_feature=0 2 6 6 2 4 2 6
split_gain=3.69335 1.5105 1.76725 0.783951 2.23975 0.416177 0.00406275 8.62522e-06
threshold=0.49800000000000005 1.0203500000000003 0.36395000000000005 0.29060000000000002 0.42800000000000005 0.22440000000000002 0.22435000000000002 0.26040000000000002
decision_type=2 2 2 2 2 2 2 2
left_child=3 2 7 4 5 6 -1 -2
right_child=1 -3 -4 -5 -6 -7 -8 -9
leaf_value=0.054491513838715415 -0.054295388618885637 -0.067513286418094662 0.0074587495392088258 0.068596104702389776 -0.041199725841983198 0.01997210154250198 0.059092283363173029 -0.054523534174067273
leaf_weight=4.5364104062318855 3.6403080970048967 6.2330590635538092 14.956178992986677 4.3894380480051032 4.311367154121398 5.1988485902547836 3.3270596861839294 3.0416838377714157
leaf_count=30 25 24 31 14 13 24 15 20
internal_value=0 -0.024138 -0.0116434 0.0308367 0.0212968 0.0419245 0.0564381 -0.0543992
internal_weight=0 27.8712 21.6382 21.7631 17.3737 13.0623 7.86347 6.68199
internal_count=196 100 76 96 82 69 45 45
is_linear=0
shrinkage=0.1


Tree=38
num_leaves=7
num_cat=0
split_feature=4 0 2 7 7 4
split_gain=3.34441 1.36059 1.28655 0.799201 0.303637 0.421198
threshold=0.34245000000000009 0.70645000000000013 0.48820000000000002 0.97215000000000018 0.66650000000000009 0.16715000000000005
decision_type=2 2 2 2 2 2
left_child=2 3 4 -2 5 -1
right_child=1 -3 -4 -5 -6 -7
leaf_value=-0.055730192439138994 0.026342585165545603 0.055653471726103368 0.0012784165119025578 -0.017374212403371975 -0.067019294198188209 -0.0075340365930535377
leaf_weight=4.4318074434995669 9.7148522883653694 8.9588078111410123 8.3464971929788572 7.3422257602214804 5.4540964365005493 3.0688968449831009
leaf_count=28 35 38 35 16 26 18
internal_value=0 0.0240983 -0.0293393 0.00752467 -0.0490657 -0.0360108
internal_weight=0 26.0159 21.3013 17.0571 12.9548 7.5007
internal_count=196 89 107 51 72 46
is_linear=0
shrinkage=0.1


Tree=39
num_leaves=7
num_cat=0
split_feature=4 0 2 7 7 4
split_gain=3.34441 1.36059 1.28655 0.799201 0.303637 0.421198
threshold=0.34245000000000009 0.70645000000000013 0.48820000000000002 0.97215000000000018 0.66650000000000009 0.16715000000000005
decision_type=2 2 2 2 2 2
left_child=2 3 4 -2 5 -1
right_child=1 -3 -4 -5 -6 -7
leaf_value=0.055730192439138994 -0.026342585165545603 -0.055653471726103368 -0.0012784165119025578 0.017374212403371975 0.067019294198188209 0.0075340365930535377
leaf_weight=4.4318074434995669 9.7148522883653694 8.9588078111410123 8.3464971929788572 7.3422257602214804 5.4540964365005493 3.0688968449831009
leaf_count=28 35 38 35 16 26 18
internal_value=0 -0.0240983 0.0293393 -0.00752467 0.0490657 0.0360108
internal_weight=0 26.0159 21.3013 17.0571 12.9548 7.5007
internal_count=196 89 107 51 72 46
is_linear=0
shrinkage=0.1


Tree=40
num_leaves=7
num_cat=0
split_feature=4 6 2 0 7 4
split_gain=2.82547 1.29922 2.902 1.22406 0.652457 0.212321
threshold=0.34245000000000009 0.24630000000000005 0.42800000000000005 0.70645000000000013 0.97215000000000018 0.21180000000000002
decision_type=2 2 2 2 2 2
left_child=1 2 5 4 -2 -1
right_child=3 -3 -4 -5 -6 -7
leaf_value=-0.054811786948409484 0.023922318211782048 -0.059728383574774536 0.057481157797551453 0.053458250733974325 -0.015678943157605818 -0.021003927501392947
leaf_weight=5.3443605676293391 9.6324743106961304 7.8090529516339293 4.4197122901678076 8.4220214113593084 7.3234927058219901 2.8473102152347565
leaf_count=38 35 28 25 38 16 16
internal_value=0 -0.0276738 -0.00782535 0.0222962 0.00681804 -0.0430606
internal_weight=0 20.4204 12.6114 25.378 16.956 8.19167
internal_count=196 107 79 89 51 54
is_linear=0
shrinkage=0.1


Tree=41
num_leaves=7
num_cat=0
split_feature=4 6 2 0 7 4
split_gain=2.82547 1.29922 2.902 1.22406 0.652457 0.212321
threshold=0.34245000000000009 0.24630000000000005 0.42800000000000005 0.70645000000000013 0.97215000000000018 0.21180000000000002
decision_type=2 2 2 2 2 2
left_child=1 2 5 4 -2 -1
right_child=3 -3 -4 -5 -6 -7
leaf_value=0.054811786948409484 -0.023922318211782048 0.059728383574774536 -0.057481157797551453 -0.053458250733974325 0.015678943157605818 0.021003927501392947
leaf_weight=5.3443605676293391 9.6324743106961304 7.8090529516339293 4.4197122901678076 8.4220214113593084 7.3234927058219901 2.8473102152347565
leaf_count=38 35 28 25 38 16 16
internal_value=0 0.0276738 0.00782535 -0.0222962 -0.00681804 0.0430606
internal_weight=0 20.4204 12.6114 25.378 16.956 8.19167
internal_count=196 107 79 89 51 54
is_linear=0
shrinkage=0.1


Tree=42
num_leaves=9
num_cat=0
split_feature=0 7 2 4 4 0 0 2
split_gain=2.4857 1.65914 0.737787 0.427806 0.352748 0.190885 0.0763244 0.00391342
threshold=0.40625000000000006 0.89585000000000015 0.42800000000000005 0.52920000000000011 0.34245000000000009 0.21350000000000002 0.70645000000000013 0.26185000000000008
decision_type=2 2 2 2 2 2 2 2
left_child=2 4 5 -3 -2 -1 -6 -7
right_child=1 3 -4 -5 6 7 -8 -9
leaf_value=-0.027833890548255975 0.026560503450672374 -0.014645623691266483 0.0051163908939999307 0.015049926765501438 0.075762443091374934 -0.053528263728881191 0.053250757422980848 -0.058147629362954825
leaf_weight=3.6883665025234205 3.8663159161806124 9.92071181535721 3.7144114077091208 9.4941200613975507 3.2195965945720673 3.8886991888284683 2.8298239782452583 3.4708879590034485
leaf_count=26 26 21 11 22 18 32 25 15
internal_value=0 0.0168731 -0.0334388 -0.000124091 0.0501532 -0.0464014 0.0652318 -0.0557068
internal_weight=0 29.3306 14.7624 19.4148 9.91574 11.048 6.04942 7.35959
internal_count=196 112 84 43 69 73 43 47
is_linear=0
shrinkage=0.1


Tree=43
num_leaves=9
num_cat=0
split_feature=0 7 2 4 4 0 0 2
split_gain=2.4857 1.65914 0.737787 0.427806 0.352748 0.190885 0.0763244 0.00391342
threshold=0.40625000000000006 0.89585000000000015 0.42800000000000005 0.52920000000000011 0.34245000000000009 0.21350000000000002 0.70645000000000013 0.26185000000000008
decision_type=2 2 2 2 2 2 2 2
left_child=2 4 5 -3 -2 -1 -6 -7
right_child=1 3 -4 -5 6 7 -8 -9
leaf_value=0.027833890548255975 -0.026560503450672374 0.014645623691266483 -0.0051163908939999307 -0.015049926765501438 -0.075762443091374934 0.053528263728881191 -0.053250757422980848 0.058147629362954825
leaf_weight=3.6883665025234205 3.8663159161806124 9.92071181535721 3.7144114077091208 9.4941200613975507 3.2195965945720673 3.8886991888284683 2.8298239782452583 3.4708879590034485
leaf_count=26 26 21 11 22 18 32 25 15
internal_value=0 -0.0168731 0.0334388 0.000124091 -0.0501532 0.0464014 -0.0652318 0.0557068
internal_weight=0 29.3306 14.7624 19.4148 9.91574 11.048 6.04942 7.35959
internal_count=196 112 84 43 69 73 43 47
is_linear=0
shrinkage=0.1


Tree=44
num_leaves=9
num_cat=0
split_feature=0 2 6 6 2 2 6 2
split_gain=2.24011 1.32718 0.844538 0.803918 1.41201 0.462132 0.455019 0.000878087
threshold=0.49800000000000005 1.0203500000000003 0.44905000000000006 0.29060000000000002 0.42800000000000005 0.88570000000000004 0.20305000000000004 0.19250000000000003
decision_type=2 2 2 2 2 2 2 2
left_child=3 2 5 4 6 -2 7 -1
right_child=1 -3 -4 -5 -6 -7 -8 -9
leaf_value=-0.053251778694459656 0.011620626665826748 0.065440730331608729 -0.0074074213542289049 -0.067118958594979253 0.036027367714330343 0.063154148832560361 -0.011539981631750769 -0.055760519018841874
leaf_weight=2.931278735399248 3.7108454257249894 5.0026601180434218 12.852781563997267 3.9140362590551367 3.8107275366783133 3.2767155840992928 4.4286383539438248 2.6623187959194183
leaf_count=26 26 24 27 14 13 23 26 17
internal_value=0 0.0194112 0.00780503 -0.0271071 -0.0157858 0.0357865 -0.0354865 -0.0544458
internal_weight=0 24.843 19.8403 17.747 13.833 6.98756 10.0222 5.5936
internal_count=196 100 76 96 82 49 69 43
is_linear=0
shrinkage=0.1


Tree=45
num_leaves=9
num_cat=0
split_feature=0 2 6 6 2 2 6 2
split_gain=2.24011 1.32718 0.844538 0.803918 1.41201 0.462132 0.455019 0.000878087
threshold=0.49800000000000005 1.0203500000000003 0.44905000000000006 0.29060000000000002 0.42800000000000005 0.88570000000000004 0.20305000000000004 0.19250000000000003
decision_type=2 2 2 2 2 2 2 2
left_child=3 2 5 4 6 -2 7 -1
right_child=1 -3 -4 -5 -6 -7 -8 -9
leaf_value=0.053251778694459656 -0.011620626665826748 -0.065440730331608729 0.0074074213542289049 0.067118958594979253 -0.036027367714330343 -0.063154148832560361 0.011539981631750769 0.055760519018841874
leaf_weight=2.931278735399248 3.7108454257249894 5.0026601180434218 12.852781563997267 3.9140362590551367 3.8107275366783133 3.2767155840992928 4.4286383539438248 2.6623187959194183
leaf_count=26 26 24 27 14 13 23 26 17
internal_value=0 -0.0194112 -0.00780503 0.0271071 0.0157858 -0.0357865 0.0354865 0.0544458
internal_weight=0 24.843 19.8403 17.747 13.833 6.98756 10.0222 5.5936
internal_count=196 100 76 96 82 49 69 43
is_linear=0
shrinkage=0.1


Tree=46
num_leaves=7
num_cat=0
split_feature=4 6 2 0 6 4
split_gain=2.02074 1.1066 2.15916 1.02975 0.735104 0.238387
threshold=0.34245000000000009 0.24630000000000005 0.42800000000000005 0.70645000000000013 0.48100000000000004 0.21180000000000002
decision_type=2 2 2 2 2 2
left_child=1 2 5 4 -2 -1
right_child=3 -3 -4 -5 -6 -7
leaf_value=-0.053548302148095007 0.023368351522903123 -0.055446110674013428 0.056176607567735327 0.050569435048484282 -0.020030395803386048 -0.014160802463996161
leaf_weight=4.1484488695859927 9.3188596516847664 7.2677400410175315 3.7395257875323296 7.2676156163215628 6.7156255841255179 2.4406616017222404
leaf_count=38 36 28 25 38 15 16
internal_value=0 -0.0255506 -0.00451466 0.0193446 0.00519192 -0.0389588
internal_weight=0 17.5964 10.3286 23.3021 16.0345 6.58911
internal_count=196 107 79 89 51 54
is_linear=0
shrinkage=0.1


Tree=47
num_leaves=7
num_cat=0
split_feature=4 6 2 0 6 4
split_gain=2.02074 1.1066 2.15916 1.02975 0.735104 0.238387
threshold=0.34245000000000009 0.24630000000000005 0.42800000000000005 0.70645000000000013 0.48100000000000004 0.21180000000000002
decision_type=2 2 2 2 2 2
left_child=1 2 5 4 -2 -1
right_child=3 -3 -4 -5 -6 -7
leaf_value=0.053548302148095007 -0.023368351522903123 0.055446110674013428 -0.056176607567735327 -0.050569435048484282 0.020030395803386048 0.014160802463996161
leaf_weight=4.1484488695859927 9.3188596516847664 7.2677400410175315 3.7395257875323296 7.2676156163215628 6.7156255841255179 2.4406616017222404
leaf_count=38 36 28 25 38 15 16
internal_value=0 0.0255506 0.00451466 -0.0193446 -0.00519192 0.0389588
internal_weight=0 17.5964 10.3286 23.3021 16.0345 6.58911
internal_count=196 107 79 89 51 54
is_linear=0
shrinkage=0.1


Tree=48
num_leaves=8
num_cat=0
split_feature=0 7 6 2 7 4 0
split_gain=1.76703 1.03807 0.726858 1.2615 0.000180644 0.000118953 3.38734e-05
threshold=0.49800000000000005 0.89585000000000015 0.29060000000000002 0.26185000000000008 0.76095000000000013 0.17930000000000001 0.68580000000000008
decision_type=2 2 2 2 2 2 2
left_child=2 4 3 5 6 -1 -2
right_child=1 -3 -4 -5 -6 -7 -8
leaf_value=-0.052446977552573548 0.052927920896092141 0.005058744530739563 -0.065322050943377841 0.012193357061404226 0.053834122362234851 -0.053441818646005182 0.052352890687840763
leaf_weight=3.0166474878787977 2.2539298459887531 17.42588609457016 3.5807649195194236 7.3595615476369858 1.9508238807320593 1.9979180619120596 1.8779517784714697
leaf_count=34 22 39 14 31 17 17 22
internal_value=0 0.0174739 -0.0256443 -0.0141625 0.053041 -0.0528433 0.0526666
internal_weight=0 23.5086 15.9549 12.3741 6.08271 5.01457 4.13188
internal_count=196 100 96 82 61 51 44
is_linear=0
shrinkage=0.1


Tree=49
num_leaves=8
num_cat=0
split_feature=0 7 6 2 7 4 0
split_gain=1.76703 1.03807 0.726858 1.2615 0.000180644 0.000118953 3.38734e-05
threshold=0.49800000000000005 0.89585000000000015 0.29060000000000002 0.26185000000000008 0.76095000000000013 0.17930000000000001 0.68580000000000008
decision_type=2 2 2 2 2 2 2
left_child=2 4 3 5 6 -1 -2
right_child=1 -3 -4 -5 -6 -7 -8
leaf_value=0.052446977552573548 -0.052927920896092141 -0.005058744530739563 0.065322050943377841 -0.012193357061404226 -0.053834122362234851 0.053441818646005182 -0.052352890687840763
leaf_weight=3.0166474878787977 2.2539298459887531 17.42588609457016 3.5807649195194236 7.3595615476369858 1.9508238807320593 1.9979180619120596 1.8779517784714697
leaf_count=34 22 39 14 31 17 17 22
internal_value=0 -0.0174739 0.0256443 0.0141625 -0.053041 0.0528433 -0.0526666
internal_weight=0 23.5086 15.9549 12.3741 6.08271 5.01457 4.13188
internal_count=196 100 96 82 61 51 44
is_linear=0
shrinkage=0.1


Tree=50
num_leaves=9
num_cat=0
split_feature=4 0 2 7 0 7 4 7
split_gain=1.7061 1.00582 2.61367 0.869868 0.675756 0.359688 0.496646 0.276113
threshold=0.34245000000000009 0.67730000000000012 0.48820000000000002 0.83265000000000011 0.66525000000000012 0.66650000000000009 0.17115000000000002 0.71590000000000009
decision_type=2 2 2 2 2 2 2 2
left_child=1 2 5 7 -5 6 -1 -2
right_child=3 -3 -4 4 -6 -7 -8 -9
leaf_value=-0.053303352901117221 0.025071794793248687 -0.076803222455401207 0.051913893017306145 -0.012449297977947641 0.027469659663719073 -0.06677337295654022 0.010679602598416955 0.072386566969000518
leaf_weight=2.843239404261114 2.0255426019430187 3.0204731896519652 4.2230879142880431 8.6759285628795642 8.2951847240328771 3.8389384746551514 2.1160359531641006 3.1536716818809509
leaf_count=30 18 10 25 22 22 26 16 27
internal_value=0 -0.0248127 -0.0127528 0.0180099 0.00706239 -0.0437924 -0.0260029 0.0538822
internal_weight=0 16.0418 13.0213 22.1503 16.9711 8.79821 4.95928 5.17921
internal_count=196 107 97 89 44 72 46 45
is_linear=0
shrinkage=0.1


Tree=51
num_leaves=9
num_cat=0
split_feature=4 0 2 7 0 7 4 7
split_gain=1.7061 1.00582 2.61367 0.869868 0.675756 0.359688 0.496646 0.276113
threshold=0.34245000000000009 0.67730000000000012 0.48820000000000002 0.83265000000000011 0.66525000000000012 0.66650000000000009 0.17115000000000002 0.71590000000000009
decision_type=2 2 2 2 2 2 2 2
left_child=1 2 5 7 -5 6 -1 -2
right_child=3 -3 -4 4 -6 -7 -8 -9
leaf_value=0.053303352901117221 -0.025071794793248687 0.076803222455401207 -0.051913893017306145 0.012449297977947641 -0.027469659663719073 0.06677337295654022 -0.010679602598416955 -0.072386566969000518
leaf_weight=2.843239404261114 2.0255426019430187 3.0204731896519652 4.2230879142880431 8.6759285628795642 8.2951847240328771 3.8389384746551514 2.1160359531641006 3.1536716818809509
leaf_count=30 18 10 25 22 22 26 16 27
internal_value=0 0.0248127 0.0127528 -0.0180099 -0.00706239 0.0437924 0.0260029 -0.0538822
internal_weight=0 16.0418 13.0213 22.1503 16.9711 8.79821 4.95928 5.17921
internal_count=196 107 97 89 44 72 46 45
is_linear=0
shrinkage=0.1


Tree=52
num_leaves=7
num_cat=0
split_feature=2 4 6 2 4 4
split_gain=1.50024 1.11337 1.14255 1.5887 0.51554 6.6689e-05
threshold=1.0203500000000003 0.34245000000000009 0.24630000000000005 0.26185000000000008 0.56200000000000017 0.16075000000000003
decision_type=2 2 2 2 2 2
left_child=1 2 3 5 -3 -1
right_child=-2 4 -4 -5 -6 -7
leaf_value=-0.051953015381993956 0.0545978424567789 0.024223645180876583 -0.059764115520701079 0.035146661253570036 -0.010186213679876724 -0.052800104235463857
leaf_weight=1.8775790184736236 4.4340498819947234 10.14064245671034 6.3418338000774375 4.6912815272808075 7.6302876472473136 1.8403391838073728
leaf_count=26 25 37 27 33 29 19
internal_value=0 -0.00740815 -0.0277165 -0.00354768 0.00944912 -0.0523723
internal_weight=0 32.522 14.751 8.4092 17.7709 3.71792
internal_count=196 171 105 78 66 45
is_linear=0
shrinkage=0.1


Tree=53
num_leaves=7
num_cat=0
split_feature=2 4 6 2 4 4
split_gain=1.50024 1.11337 1.14255 1.5887 0.51554 6.6689e-05
threshold=1.0203500000000003 0.34245000000000009 0.24630000000000005 0.26185000000000008 0.56200000000000017 0.16075000000000003
decision_type=2 2 2 2 2 2
left_child=1 2 3 5 -3 -1
right_child=-2 4 -4 -5 -6 -7
leaf_value=0.051953015381993956 -0.0545978424567789 -0.024223645180876583 0.059764115520701079 -0.035146661253570036 0.010186213679876724 0.052800104235463857
leaf_weight=1.8775790184736236 4.4340498819947234 10.14064245671034 6.3418338000774375 4.6912815272808075 7.6302876472473136 1.8403391838073728
leaf_count=26 25 37 27 33 29 19
internal_value=0 0.00740815 0.0277165 0.00354768 -0.00944912 0.0523723
internal_weight=0 32.522 14.751 8.4092 17.7709 3.71792
internal_count=196 171 105 78 66 45
is_linear=0
shrinkage=0.1


Tree=54
num_leaves=7
num_cat=0
split_feature=0 7 6 2 4 0
split_gain=1.29517 0.903897 0.668543 1.01864 0.000136046 0.000133577
threshold=0.49800000000000005 0.89585000000000015 0.29060000000000002 0.26185000000000008 0.20505000000000004 0.70645000000000013
decision_type=2 2 2 2 2 2
left_child=2 5 3 4 -1 -2
right_child=1 -3 -4 -5 -6 -7
leaf_value=-0.051801819196834832 0.052979699321472 0.0041868588177675862 -0.063622989395280743 0.011429746716418642 -0.052996606444267139 0.051911062614244212
leaf_weight=2.3385697975754725 3.1199045181274441 17.028795897960663 3.2299118414521208 6.8858381807804108 1.6085437238216398 1.8712458685040472
leaf_count=35 34 39 14 31 16 27
internal_value=0 0.0151557 -0.0236924 -0.0117868 -0.0522887 0.0525791
internal_weight=0 22.0199 14.0629 10.833 3.94711 4.99115
internal_count=196 100 96 82 51 61
is_linear=0
shrinkage=0.1


Tree=55
num_leaves=7
num_cat=0
split_feature=0 7 6 2 4 0
split_gain=1.29517 0.903897 0.668543 1.01864 0.000136046 0.000133577
threshold=0.49800000000000005 0.89585000000000015 0.29060000000000002 0.26185000000000008 0.20505000000000004 0.70645000000000013
decision_type=2 2 2 2 2 2
left_child=2 5 3 4 -1 -2
right_child=1 -3 -4 -5 -6 -7
leaf_value=0.051801819196834832 -0.052979699321472 -0.0041868588177675862 0.063622989395280743 -0.011429746716418642 0.052996606444267139 -0.051911062614244212
leaf_weight=2.3385697975754725 3.1199045181274441 17.028795897960663 3.2299118414521208 6.8858381807804108 1.6085437238216398 1.8712458685040472
leaf_count=35 34 39 14 31 16 27
internal_value=0 -0.0151557 0.0236924 0.0117868 0.0522887 -0.0525791
internal_weight=0 22.0199 14.0629 10.833 3.94711 4.99115
internal_count=196 100 96 82 51 61
is_linear=0
shrinkage=0.1


Tree=56
num_leaves=7
num_cat=0
split_feature=2 4 6 2 4 4
split_gain=1.27309 0.963562 0.980389 1.3052 0.420313 3.53308e-05
threshold=1.0203500000000003 0.34245000000000009 0.24485000000000004 0.26185000000000008 0.56200000000000017 0.16075000000000003
decision_type=2 2 2 2 2 2
left_child=1 2 3 5 -3 -1
right_child=-2 4 -4 -5 -6 -7
leaf_value=-0.051582745128732524 0.052902595323391435 0.022310544406590513 -0.055189130093355791 0.034221288862605892 -0.0091417844830469323 -0.052268555409843744
leaf_weight=1.4842482507228871 4.0258784666657439 9.8777023777365702 6.4185551144182682 4.2392166331410408 7.4559044539928427 1.5209335200488565
leaf_count=25 25 37 30 31 29 19
internal_value=0 -0.00687189 -0.0267308 -0.00151664 0.00878159 -0.0519298
internal_weight=0 30.9966 13.663 7.2444 17.3336 3.00518
internal_count=196 171 105 75 66 44
is_linear=0
shrinkage=0.1


Tree=57
num_leaves=7
num_cat=0
split_feature=2 4 6 2 4 4
split_gain=1.27309 0.963562 0.980389 1.3052 0.420313 3.53308e-05
threshold=1.0203500000000003 0.34245000000000009 0.24485000000000004 0.26185000000000008 0.56200000000000017 0.16075000000000003
decision_type=2 2 2 2 2 2
left_child=1 2 3 5 -3 -1
right_child=-2 4 -4 -5 -6 -7
leaf_value=0.051582745128732524 -0.052902595323391435 -0.022310544406590513 0.055189130093355791 -0.034221288862605892 0.0091417844830469323 0.052268555409843744
leaf_weight=1.4842482507228871 4.0258784666657439 9.8777023777365702 6.4185551144182682 4.2392166331410408 7.4559044539928427 1.5209335200488565
leaf_count=25 25 37 30 31 29 19
internal_value=0 0.00687189 0.0267308 0.00151664 -0.00878159 0.0519298
internal_weight=0 30.9966 13.663 7.2444 17.3336 3.00518
internal_count=196 171 105 75 66 44
is_linear=0
shrinkage=0.1


Tree=58
num_leaves=7
num_cat=0
split_feature=2 4 6 2 4 7
split_gain=1.09522 0.813307 0.807448 1.17011 0.342536 0.331452
threshold=1.0203500000000003 0.34245000000000009 0.24485000000000004 0.42800000000000005 0.56200000000000017 0.60935000000000017
decision_type=2 2 2 2 2 2
left_child=1 2 3 5 -3 -1
right_child=-2 4 -4 -5 -6 -7
leaf_value=-0.05323036944548986 0.050612776370681262 0.02020258359539771 -0.051129608661757232 0.054510935261600349 -0.0082101806711357955 0.0025868930480134663
leaf_weight=2.7615256160497683 3.7991471439599982 9.8206440433859843 6.2447008304297924 2.421513456851244 7.4708923101425162 1.7305324636399744
leaf_count=37 25 37 30 23 29 15
internal_value=0 -0.00632994 -0.0250649 -0.00152184 0.00792671 -0.0317272
internal_weight=0 30.4498 13.1583 6.91357 17.2915 4.49206
internal_count=196 171 105 75 66 52
is_linear=0
shrinkage=0.1


Tree=59
num_leaves=7
num_cat=0
split_feature=2 4 6 2 4 7
split_gain=1.09522 0.813307 0.807448 1.17011 0.342536 0.331452
threshold=1.0203500000000003 0.34245000000000009 0.24485000000000004 0.42800000000000005 0.56200000000000017 0.60935000000000017
decision_type=2 2 2 2 2 2
left_child=1 2 3 5 -3 -1
right_child=-2 4 -4 -5 -6 -7
leaf_value=0.05323036944548986 -0.050612776370681262 -0.02020258359539771 0.051129608661757232 -0.054510935261600349 0.0082101806711357955 -0.0025868930480134663
leaf_weight=2.7615256160497683 3.7991471439599982 9.8206440433859843 6.2447008304297924 2.421513456851244 7.4708923101425162 1.7305324636399744
leaf_count=37 25 37 30 23 29 15
internal_value=0 0.00632994 0.0250649 0.00152184 -0.00792671 0.0317272
internal_weight=0 30.4498 13.1583 6.91357 17.2915 4.49206
internal_count=196 171 105 75 66 52
is_linear=0
shrinkage=0.1


Tree=60
num_leaves=7
num_cat=0
split_feature=0 7 6 2 6 4
split_gain=0.980049 0.803617 0.650274 0.826313 0.000137594 0.000119741
threshold=0.49800000000000005 0.89585000000000015 0.29060000000000002 0.26185000000000008 0.24485000000000004 0.20505000000000004
decision_type=2 2 2 2 2 2
left_child=2 4 3 5 -2 -1
right_child=1 -3 -4 -5 -6 -7
leaf_value=-0.051331438060206326 0.051640738684425529 0.0034152946557974222 -0.062595648873731466 0.010841367516131326 0.05279502089208641 -0.052587188251372645
leaf_weight=1.7579263821244224 1.8010929338634039 16.519998401403427 3.0025365725159636 6.5419351160526276 2.4206574819982052 1.3367626778781412
leaf_count=35 30 39 14 31 31 16
internal_value=0 0.0133658 -0.02196 -0.0092989 0.0523026 -0.0518739
internal_weight=0 20.7417 12.6392 9.63662 4.22175 3.09469
internal_count=196 100 96 82 61 51
is_linear=0
shrinkage=0.1


Tree=61
num_leaves=7
num_cat=0
split_feature=0 7 6 2 6 4
split_gain=0.980049 0.803617 0.650274 0.826313 0.000137594 0.000119741
threshold=0.49800000000000005 0.89585000000000015 0.29060000000000002 0.26185000000000008 0.24485000000000004 0.20505000000000004
decision_type=2 2 2 2 2 2
left_child=2 4 3 5 -2 -1
right_child=1 -3 -4 -5 -6 -7
leaf_value=0.051331438060206326 -0.051640738684425529 -0.0034152946557974222 0.062595648873731466 -0.010841367516131326 -0.05279502089208641 0.052587188251372645
leaf_weight=1.7579263821244224 1.8010929338634039 16.519998401403427 3.0025365725159636 6.5419351160526276 2.4206574819982052 1.3367626778781412
leaf_count=35 30 39 14 31 31 16
internal_value=0 -0.0133658 0.02196 0.0092989 -0.0523026 0.0518739
internal_weight=0 20.7417 12.6392 9.63662 4.22175 3.09469
internal_count=196 100 96 82 61 51
is_linear=0
shrinkage=0.1


Tree=62
num_leaves=7
num_cat=0
split_feature=2 4 6 2 2 0
split_gain=0.934018 0.71874 0.428443 1.06021 0.413869 0.360839
threshold=1.0203500000000003 0.38010000000000005 0.24485000000000004 0.42800000000000005 0.8510500000000002 0.22620000000000004
decision_type=2 2 2 2 2 2
left_child=1 2 3 5 -3 -1
right_child=-2 4 -4 -5 -6 -7
leaf_value=0.0042422133138526582 0.049038586404417411 0.029408683395331838 -0.04044619788529133 0.054014869507583413 -0.0040961736082216517 -0.054295211472278851
leaf_weight=1.6938550807535664 3.4663171358406535 5.9613394364714614 6.8181851878762245 2.0967925861477852 9.6626315973699075 2.7834957465529442
leaf_count=22 25 22 34 23 38 32
internal_value=0 -0.00588363 -0.022883 -0.0046678 0.00868763 -0.0321495
internal_weight=0 29.0163 13.3923 6.57414 15.624 4.47735
internal_count=196 171 111 77 60 54
is_linear=0
shrinkage=0.1


Tree=63
num_leaves=7
num_cat=0
split_feature=2 4 6 2 2 0
split_gain=0.934018 0.71874 0.428443 1.06021 0.413869 0.360839
threshold=1.0203500000000003 0.38010000000000005 0.24485000000000004 0.42800000000000005 0.8510500000000002 0.22620000000000004
decision_type=2 2 2 2 2 2
left_child=1 2 3 5 -3 -1
right_child=-2 4 -4 -5 -6 -7
leaf_value=-0.0042422133138526582 -0.049038586404417411 -0.029408683395331838 0.04044619788529133 -0.054014869507583413 0.0040961736082216517 0.054295211472278851
leaf_weight=1.6938550807535664 3.4663171358406535 5.9613394364714614 6.8181851878762245 2.0967925861477852 9.6626315973699075 2.7834957465529442
leaf_count=22 25 22 34 23 38 32
internal_value=0 0.00588363 0.022883 0.0046678 -0.00868763 0.0321495
internal_weight=0 29.0163 13.3923 6.57414 15.624 4.47735
internal_count=196 171 111 77 60 54
is_linear=0
shrinkage=0.1


Tree=64
num_leaves=9
num_cat=0
split_feature=2 6 6 2 2 7 2 4
split_gain=0.800984 0.660017 1.05099 1.75568 0.535223 0.961999 0.770764 9.93794e-05
threshold=1.0203500000000003 0.54925000000000013 0.49125000000000002 0.90615000000000012 0.26185000000000008 0.83265000000000011 0.48820000000000002 0.21795
decision_type=2 2 2 2 2 2 2 2
left_child=1 2 3 4 7 6 -6 -1
right_child=-2 -3 -4 -5 5 -7 -8 -9
leaf_value=-0.051141454998818385 0.046764738406395209 0.033370352827242447 -0.048363812382418728 0.075708072713299629 -0.0086182558202271397 -0.037004911762666529 0.05413752985481738 -0.052334654552530661
leaf_weight=1.5985061079263858 3.2811548486351958 3.8004115819931021 5.8620885014533988 2.6418463587760916 4.6127173379063588 5.2690588533878318 3.3994308561086655 1.2391081377863882
leaf_count=37 25 9 14 22 24 12 36 17
internal_value=0 -0.00541737 -0.0114041 0.000144612 -0.0122401 -0.00381726 0.0180081 -0.0516625
internal_weight=0 28.4232 24.6228 18.7607 16.1188 13.2812 8.01215 2.83761
internal_count=196 171 162 148 126 72 60 54
is_linear=0
shrinkage=0.1


Tree=65
num_leaves=9
num_cat=0
split_feature=2 6 6 2 2 7 2 4
split_gain=0.800984 0.660017 1.05099 1.75568 0.535223 0.961999 0.770764 9.93794e-05
threshold=1.0203500000000003 0.54925000000000013 0.49125000000000002 0.90615000000000012 0.26185000000000008 0.83265000000000011 0.48820000000000002 0.21795
decision_type=2 2 2 2 2 2 2 2
left_child=1 2 3 4 7 6 -6 -1
right_child=-2 -3 -4 -5 5 -7 -8 -9
leaf_value=0.051141454998818385 -0.046764738406395209 -0.033370352827242447 0.048363812382418728 -0.075708072713299629 0.0086182558202271397 0.037004911762666529 -0.05413752985481738 0.052334654552530661
leaf_weight=1.5985061079263858 3.2811548486351958 3.8004115819931021 5.8620885014533988 2.6418463587760916 4.6127173379063588 5.2690588533878318 3.3994308561086655 1.2391081377863882
leaf_count=37 25 9 14 22 24 12 36 17
internal_value=0 0.00541737 0.0114041 -0.000144612 0.0122401 0.00381726 -0.0180081 0.0516625
internal_weight=0 28.4232 24.6228 18.7607 16.1188 13.2812 8.01215 2.83761
internal_count=196 171 162 148 126 72 60 54
is_linear=0
shrinkage=0.1


Tree=66
num_leaves=7
num_cat=0
split_feature=4 6 2 4 4 4
split_gain=0.748016 0.624144 0.483751 0.37176 0.705311 0.168544
threshold=0.38010000000000005 0.36395000000000005 0.48820000000000002 0.22865000000000002 0.17930000000000001 0.56200000000000017
decision_type=2 2 2 2 2 2
left_child=2 5 3 4 -1 -2
right_child=1 -3 -4 -5 -6 -7
leaf_value=-0.052608706054928768 0.069781897886177391 0.0034034885112549408 0.00059709080834555064 -0.064651135993193248 0.04130162468178937 0.028027577057523095
leaf_weight=2.0359111912548564 1.920824073255065 14.060755692422388 6.4994242452085018 2.891571668908 1.3171577919274566 1.9463198333978651
leaf_count=38 20 38 39 25 11 25
internal_value=0 0.0131887 -0.0185003 -0.0383768 -0.0157187 0.0487671
internal_weight=0 17.9279 12.7441 6.24464 3.35307 3.86714
internal_count=196 83 113 74 49 45
is_linear=0
shrinkage=0.1


Tree=67
num_leaves=7
num_cat=0
split_feature=4 6 2 4 4 4
split_gain=0.748016 0.624144 0.483751 0.37176 0.705311 0.168544
threshold=0.38010000000000005 0.36395000000000005 0.48820000000000002 0.22865000000000002 0.17930000000000001 0.56200000000000017
decision_type=2 2 2 2 2 2
left_child=2 5 3 4 -1 -2
right_child=1 -3 -4 -5 -6 -7
leaf_value=0.052608706054928768 -0.069781897886177391 -0.0034034885112549408 -0.00059709080834555064 0.064651135993193248 -0.04130162468178937 -0.028027577057523095
leaf_weight=2.0359111912548564 1.920824073255065 14.060755692422388 6.4994242452085018 2.891571668908 1.3171577919274566 1.9463198333978651
leaf_count=38 20 38 39 25 11 25
internal_value=0 -0.0131887 0.0185003 0.0383768 0.0157187 -0.0487671
internal_weight=0 17.9279 12.7441 6.24464 3.35307 3.86714
internal_count=196 83 113 74 49 45
is_linear=0
shrinkage=0.1


Tree=68
num_leaves=8
num_cat=0
split_feature=0 6 2 0 7 4 4
split_gain=0.683916 0.614886 0.636399 0.407688 0.850335 0.701849 7.54029e-05
threshold=0.49800000000000005 0.29060000000000002 0.26185000000000008 0.69650000000000001 0.97215000000000018 0.43765000000000004 0.21180000000000002
decision_type=2 2 2 2 2 2 2
left_child=1 2 6 4 -2 -5 -1
right_child=3 -3 -4 5 -6 -7 -8
leaf_value=-0.050944614788672161 -0.002679419712497029 -0.061493928375463851 0.01109650110079223 -0.039092833305513101 0.056041933012809242 0.017334045105721556 -0.052112634951744764
leaf_weight=1.2925414238125106 5.1485206149518508 2.7010805588215581 5.8221608400344849 3.505328265950082 4.7330590784549713 5.9390241876244545 0.9655875228345393
leaf_count=36 38 14 31 15 10 37 15
internal_value=0 -0.0201887 -0.00638117 0.0112475 0.0254468 -0.00360913 -0.0514441
internal_weight=0 10.7814 8.08029 19.3259 9.88158 9.44435 2.25813
internal_count=196 96 82 100 48 52 51
is_linear=0
shrinkage=0.1


Tree=69
num_leaves=8
num_cat=0
split_feature=0 6 2 0 7 4 4
split_gain=0.683916 0.614886 0.636399 0.407688 0.850335 0.701849 7.54029e-05
threshold=0.49800000000000005 0.29060000000000002 0.26185000000000008 0.69650000000000001 0.97215000000000018 0.43765000000000004 0.21180000000000002
decision_type=2 2 2 2 2 2 2
left_child=1 2 6 4 -2 -5 -1
right_child=3 -3 -4 5 -6 -7 -8
leaf_value=0.050944614788672161 0.002679419712497029 0.061493928375463851 -0.01109650110079223 0.039092833305513101 -0.056041933012809242 -0.017334045105721556 0.052112634951744764
leaf_weight=1.2925414238125106 5.1485206149518508 2.7010805588215581 5.8221608400344849 3.505328265950082 4.7330590784549713 5.9390241876244545 0.9655875228345393
leaf_count=36 38 14 31 15 10 37 15
internal_value=0 0.0201887 0.00638117 -0.0112475 -0.0254468 0.00360913 0.0514441
internal_weight=0 10.7814 8.08029 19.3259 9.88158 9.44435 2.25813
internal_count=196 96 82 100 48 52 51
is_linear=0
shrinkage=0.1


Tree=70
num_leaves=8
num_cat=0
split_feature=2 4 6 2 0 4 7
split_gain=0.643575 0.498382 0.718191 0.889112 0.490283 0.385614 0.0741887
threshold=1.0203500000000003 0.34245000000000009 0.50120000000000009 0.48820000000000002 0.22620000000000004 0.56200000000000017 0.68430000000000013
decision_type=2 2 2 2 2 2 2
left_child=1 2 3 4 -1 -3 -6
right_child=-2 5 -4 -5 6 -7 -8
leaf_value=0.013621632796183581 0.044180278435225727 0.01958314804152398 -0.078475396951650331 0.03049218564848102 -0.041515903715783287 -0.011670876782735529 -0.069453540157709034
leaf_weight=1.4817501138895801 2.9615270569920531 9.1533420048654097 1.8485077321529377 3.3549778610467911 2.1110088191926484 6.9413355328142634 1.7290393244475124
leaf_count=26 25 37 4 29 31 29 15
internal_value=0 -0.00496118 -0.0218812 -0.00982437 -0.0352408 0.00610387 -0.0540952
internal_weight=0 26.62 10.5253 8.67678 5.3218 16.0947 3.84005
internal_count=196 171 105 101 72 66 46
is_linear=0
shrinkage=0.1


Tree=71
num_leaves=8
num_cat=0
split_feature=2 4 6 2 0 4 7
split_gain=0.643575 0.498382 0.718191 0.889112 0.490283 0.385614 0.0741887
threshold=1.0203500000000003 0.34245000000000009 0.50120000000000009 0.48820000000000002 0.22620000000000004 0.56200000000000017 0.68430000000000013
decision_type=2 2 2 2 2 2 2
left_child=1 2 3 4 -1 -3 -6
right_child=-2 5 -4 -5 6 -7 -8
leaf_value=-0.013621632796183581 -0.044180278435225727 -0.01958314804152398 0.078475396951650331 -0.03049218564848102 0.041515903715783287 0.011670876782735529 0.069453540157709034
leaf_weight=1.4817501138895801 2.9615270569920531 9.1533420048654097 1.8485077321529377 3.3549778610467911 2.1110088191926484 6.9413355328142634 1.7290393244475124
leaf_count=26 25 37 4 29 31 29 15
internal_value=0 0.00496118 0.0218812 0.00982437 0.0352408 -0.00610387 0.0540952
internal_weight=0 26.62 10.5253 8.67678 5.3218 16.0947 3.84005
internal_count=196 171 105 101 72 66 46
is_linear=0
shrinkage=0.1


end of trees

feature_importances:
Facenet_cosine=162
VGG-Face_cosine=102
DeepFace_cosine=88
OpenFace_cosine=80
DeepFace_euclidean_l2=66

parameters:
[boosting: gbdt]
[objective: multiclass]
[metric: multi_logloss]
[tree_learner: serial]
[device_type: cpu]
[data: ]
[valid: ]
[num_iterations: 250]
[learning_rate: 0.1]
[num_leaves: 31]
[num_threads: 0]
[deterministic: 0]
[force_col_wise: 0]
[force_row_wise: 0]
[histogram_pool_size: -1]
[max_depth: -1]
[min_data_in_leaf: 20]
[min_sum_hessian_in_leaf: 0.001]
[bagging_fraction: 1]
[pos_bagging_fraction: 1]
[neg_bagging_fraction: 1]
[bagging_freq: 0]
[bagging_seed: 3]
[feature_fraction: 1]
[feature_fraction_bynode: 1]
[feature_fraction_seed: 2]
[extra_trees: 0]
[extra_seed: 6]
[early_stopping_round: 15]
[first_metric_only: 0]
[max_delta_step: 0]
[lambda_l1: 0]
[lambda_l2: 0]
[linear_lambda: 0]
[min_gain_to_split: 0]
[drop_rate: 0.1]
[max_drop: 50]
[skip_drop: 0.5]
[xgboost_dart_mode: 0]
[uniform_drop: 0]
[drop_seed: 4]
[top_rate: 0.2]
[other_rate: 0.1]
[min_data_per_group: 100]
[max_cat_threshold: 32]
[cat_l2: 10]
[cat_smooth: 10]
[max_cat_to_onehot: 4]
[top_k: 20]
[monotone_constraints: ]
[monotone_constraints_method: basic]
[monotone_penalty: 0]
[feature_contri: ]
[forcedsplits_filename: ]
[refit_decay_rate: 0.9]
[cegb_tradeoff: 1]
[cegb_penalty_split: 0]
[cegb_penalty_feature_lazy: ]
[cegb_penalty_feature_coupled: ]
[path_smooth: 0]
[interaction_constraints: ]
[verbosity: 1]
[saved_feature_importance_type: 0]
[linear_tree: 0]
[max_bin: 255]
[max_bin_by_feature: ]
[min_data_in_bin: 3]
[bin_construct_sample_cnt: 200000]
[data_random_seed: 1]
[is_enable_sparse: 1]
[enable_bundle: 1]
[use_missing: 1]
[zero_as_missing: 0]
[feature_pre_filter: 1]
[pre_partition: 0]
[two_round: 0]
[header: 0]
[label_column: ]
[weight_column: ]
[group_column: ]
[ignore_column: ]
[categorical_feature: ]
[forcedbins_filename: ]
[precise_float_parser: 0]
[objective_seed: 5]
[num_class: 2]
[is_unbalance: 0]
[scale_pos_weight: 1]
[sigmoid: 1]
[boost_from_average: 1]
[reg_sqrt: 0]
[alpha: 0.9]
[fair_c: 1]
[poisson_max_delta_step: 0.7]
[tweedie_variance_power: 1.5]
[lambdarank_truncation_level: 30]
[lambdarank_norm: 1]
[label_gain: ]
[eval_at: ]
[multi_error_top_k: 1]
[auc_mu_weights: ]
[num_machines: 1]
[local_listen_port: 12400]
[time_out: 120]
[machine_list_filename: ]
[machines: ]
[gpu_platform_id: -1]
[gpu_device_id: -1]
[gpu_use_dp: 0]
[num_gpu: 1]

end of parameters

pandas_categorical:null
